// The contents of this file are licensed under the Creative Commons
// Attribution 4.0 International License: https://creativecommons.org/licenses/by/4.0/
// Neural Network File Format by Kyle Julian, Stanford 2016
2,5,5,50,
5,50,5,
0,
0.0,-3.141593,-3.141593,100.0,0.0,
60760.0,3.141593,3.141593,1200.0,1200.0,
1.9791091e+04,0.0,0.0,650.0,600.0,7.5188840201005975,
60261.0,6.28318530718,6.28318530718,1100.0,1200.0,373.94992,
5.40062e-02,-2.61092e+00,-1.80027e-01,2.42194e-01,1.41407e-01,
-1.12374e+00,2.63619e-02,-9.17929e-03,5.56230e-02,-3.27635e-01,
1.96019e-01,2.42159e-01,6.38452e-01,-4.78265e-01,1.42577e-01,
-1.63015e+00,-3.44447e-02,-6.05492e-03,1.12076e-02,-1.04997e-02,
-3.55133e-01,5.65969e-01,2.28267e-01,1.77342e-01,-2.08078e-01,
-3.41918e-02,1.49570e+00,-1.53371e+00,4.05053e-02,1.64350e-01,
4.02002e-01,2.24022e-01,-4.67160e-02,1.63890e-01,-1.60826e-01,
-1.41575e+00,-7.47429e-02,6.04386e-02,4.82656e-02,-5.60096e-02,
-1.44498e+00,4.48403e-02,8.88916e-03,-2.50230e-01,6.53312e-02,
-1.12740e+00,2.39891e-02,-9.56711e-03,8.92796e-03,-4.58007e-03,
6.13717e-01,-5.57820e-01,-5.19507e-02,1.60852e-01,-9.71775e-02,
9.33699e-01,2.03647e-01,1.66178e-01,-1.52163e-03,-2.09448e-01,
-4.08026e-02,5.48666e-01,5.74868e-02,1.42985e-01,9.48681e-02,
-2.12265e-01,-3.28003e-01,3.57536e-01,-3.89715e-01,-4.59337e-01,
3.20180e-02,4.22455e-01,-5.68833e-01,-2.10782e-01,7.57506e-02,
-1.24055e-02,2.28453e+00,5.34617e-02,5.80561e-02,1.18652e-01,
-1.22430e-01,-7.12042e-01,9.15904e-03,-3.91123e-01,3.39849e-02,
6.01742e-02,-6.39072e-02,-2.50281e+00,4.99702e-02,-3.77898e-02,
8.33034e-02,-4.07486e-02,-7.52101e-01,-1.18798e-01,-2.18044e-01,
-1.18804e+00,1.44630e-01,-1.49280e-01,-3.60766e-02,-1.18933e-01,
-1.03537e-01,6.99915e-02,2.42373e+00,2.26499e-02,3.19605e-02,
-8.53903e-02,1.75215e-01,-8.74009e-02,-7.31836e-01,-2.20850e-01,
-1.93838e-02,3.99390e+00,1.17807e-01,7.84146e-02,-1.45183e-02,
1.66866e-02,-6.54405e-01,5.60096e-01,1.96579e-01,-4.49805e-01,
1.67639e-03,5.38434e-03,-7.26639e-03,4.18084e-03,1.78105e-03,
-8.97525e-01,-1.27606e-01,1.62803e-01,-4.81184e-02,7.85461e-02,
-9.33220e-01,-2.43277e-02,2.30273e-01,-2.09033e-01,-9.43662e-02,
1.60333e-01,3.69291e-03,2.62149e-01,2.81943e-01,-5.51476e-01,
8.34021e-02,2.01281e+00,3.55310e-01,3.60065e-02,-9.96482e-02,
2.84019e-01,-4.65741e-02,7.47930e-03,-8.40513e-01,-4.81789e-01,
1.37295e+00,5.88150e-03,1.30908e-02,-7.41005e-02,-1.55849e-01,
-1.44445e-01,6.07591e-04,-2.11642e-02,-6.47714e-01,-1.82691e-02,
-1.36290e+00,-2.07197e-02,4.45642e-02,3.94107e-02,9.35691e-02,
-1.55178e+00,8.38021e-02,-3.52086e-02,6.05953e-03,8.28404e-03,
1.29659e+00,9.38274e-02,1.75474e-01,1.33440e-01,2.98777e-01,
1.58680e-02,3.29773e-01,-2.65353e-01,-1.03541e-01,7.65932e-02,
-4.15857e-02,-1.47674e+00,-5.79324e-02,-2.06667e-01,2.01547e-01,
-8.26992e-02,2.55120e-03,9.87215e-03,6.89708e-02,-8.78938e-01,
-1.59025e+00,4.75710e-02,7.63074e-03,-1.42601e-02,2.85048e-03,
2.83388e-02,-2.30824e-02,-7.63311e-02,-7.71610e-01,4.99034e-01,
1.39212e-01,-5.72182e-01,4.26805e-01,-3.30029e-01,2.80864e-01,
2.57852e-01,-6.26802e-02,-3.31132e-01,3.29905e-01,-8.56315e-01,
6.86480e-02,2.45863e-03,-1.42610e-02,2.79897e-02,-1.85103e+00,
-7.44590e-01,3.11863e-03,-1.87879e-01,1.36177e-02,-1.59550e-02,
-4.16569e-01,1.20669e-02,-4.81611e-02,-3.64603e-01,2.88194e-01,
-6.32539e-01,-3.58635e-02,2.83509e-02,7.37678e-02,6.49997e-02,
3.92007e-02,5.64469e-01,2.62818e-01,-1.39606e-02,-3.57883e-01,
-3.85883e-02,-1.23878e-01,-7.62627e-01,4.23037e-02,4.98901e-02,
-1.57631e+00,4.40016e-04,-8.32176e-03,-9.26607e-02,-4.93705e-03,
6.20367e-01,7.50374e-02,-1.46141e-02,2.62575e-01,-2.57948e-01,
2.27630e-01,
-1.88762e-01,
5.34094e-02,
-3.77861e-01,
-8.12531e-02,
-5.88651e-01,
7.46065e-02,
-3.92887e-01,
-3.56303e-01,
-1.67712e-01,
5.87109e-02,
1.83917e-01,
1.31957e-01,
-3.08681e-01,
1.96929e-01,
2.06664e-01,
-3.11696e-01,
3.06576e-02,
-1.38822e-01,
-3.47434e-01,
-4.51840e-03,
-3.90616e-01,
9.69635e-02,
9.83266e-03,
-1.88585e-02,
-2.31919e-01,
-2.38165e-01,
7.10148e-02,
-1.41913e-01,
-4.42307e-01,
5.59084e-01,
1.35483e-01,
-3.73217e-01,
-4.15390e-01,
7.59638e-01,
1.32825e-01,
2.35566e-01,
2.14858e-01,
-4.40841e-01,
-7.72968e-02,
2.21606e-01,
-6.50873e-03,
-6.34843e-01,
-1.53833e-01,
-5.73027e-02,
-1.09229e-01,
3.70344e-02,
5.38087e-02,
-4.47550e-01,
1.75917e-01,
-1.00490e-03,1.77588e-02,6.44684e-03,1.00598e-02,2.15751e-03,2.41695e-02,2.07160e-02,3.25348e-03,3.76957e-02,5.37383e-02,3.96667e-03,2.95171e-04,8.44118e-03,4.30048e-03,5.53546e-05,2.70628e-02,4.22983e-03,-1.69606e-02,4.33998e-03,5.67525e-02,6.00247e-02,3.47097e-02,1.04634e-03,9.25969e-03,1.04904e-02,-6.27135e-02,1.29801e-02,1.43107e-01,1.55933e-04,9.09701e-03,1.86967e-01,1.09487e-02,-1.54135e-02,3.66418e-01,-4.64881e-03,-1.05615e-02,3.46626e-02,3.54153e-02,-7.77726e-04,3.85740e-03,4.19073e-03,-1.72908e-02,6.28022e-03,-1.46312e-02,5.26843e-03,2.35743e-02,1.81072e-02,-1.14841e-03,1.16412e-02,-4.97452e-03,
-1.60923e-03,2.38133e-02,7.46871e-03,-3.13060e-03,-2.80990e-03,2.28730e-02,2.36429e-02,8.20832e-03,4.33519e-02,5.18454e-02,-9.74907e-04,-2.45709e-04,3.99484e-03,-8.09352e-03,-7.29084e-03,1.95302e-02,-8.45971e-03,-2.80780e-02,2.22410e-03,6.69689e-02,5.56077e-02,3.75405e-02,8.12147e-03,-1.06021e-02,1.40604e-02,-1.13678e-02,2.48419e-02,1.74828e-01,1.45279e-02,1.00504e-02,2.01379e-01,2.06927e-02,-1.40340e-02,4.13943e-01,-1.12926e-02,-4.36394e-03,3.29306e-02,2.33757e-02,2.94505e-02,1.55092e-02,-2.07847e-03,-2.57482e-02,1.32770e-02,-1.34533e-02,1.97653e-03,2.45503e-02,2.00014e-02,-5.15162e-02,1.12730e-02,-8.87692e-03,
3.17032e-02,2.12332e-02,-4.98239e-03,2.76194e-02,2.03134e-02,2.17319e-02,1.20344e-02,-6.28760e-03,4.11111e-02,5.82644e-02,9.41772e-03,1.53711e-02,2.89061e-02,1.30497e-02,2.92384e-03,2.52006e-02,-1.02096e-02,-1.21320e-02,1.39771e-02,6.93007e-02,5.26067e-02,3.74207e-02,-2.58324e-03,-6.97084e-03,3.10848e-03,-1.35615e-02,2.04092e-02,1.59073e-01,1.64534e-03,1.90926e-02,1.99540e-01,1.33324e-02,-1.11085e-02,4.00429e-01,-3.65827e-03,-1.75431e-02,3.16598e-02,3.06686e-02,-1.18986e-03,-1.00581e-02,2.21781e-03,-1.67647e-02,-7.80408e-04,-2.45084e-02,2.07162e-02,1.52769e-02,2.14738e-02,2.84946e-03,1.94173e-02,-9.55315e-03,
3.86038e-03,1.59409e-02,1.25385e-02,4.46224e-03,-2.79642e-02,2.42819e-02,8.00875e-03,2.42513e-02,-4.29988e-03,5.97856e-02,-1.14641e-02,-1.91129e-02,4.06634e-03,-1.23403e-02,-1.65000e-02,2.48731e-02,2.29474e-02,-2.87024e-02,-1.10197e-02,4.60935e-02,5.86005e-02,3.64215e-02,2.28337e-02,1.47448e-02,1.50308e-02,-1.41495e-02,2.87788e-02,1.34752e-01,2.10016e-02,-1.44816e-02,1.46935e-01,4.79544e-03,-1.90160e-02,1.98699e-01,-9.20700e-03,1.75599e-02,4.21516e-02,3.91117e-02,3.13064e-02,1.97998e-02,-2.45558e-02,-3.48254e-02,1.42149e-02,1.62112e-02,-1.02774e-02,2.69725e-02,1.88189e-02,-5.82468e-02,-1.00225e-02,-9.96510e-03,
3.29740e-02,-3.21035e-03,-7.30703e-03,1.42817e-02,3.09295e-02,2.67673e-02,2.29176e-02,-2.24140e-02,4.61009e-03,5.24488e-02,1.78036e-02,2.93894e-02,2.78019e-02,2.45190e-02,1.20456e-02,3.47380e-02,2.26422e-02,1.85986e-03,2.31078e-02,5.06335e-02,5.19765e-02,3.55480e-02,-2.09633e-02,5.19522e-03,-1.29484e-02,-1.84528e-02,-5.44930e-03,9.64997e-02,-1.13055e-02,2.43227e-02,1.34838e-01,8.60237e-03,-1.68496e-02,2.04973e-01,1.31377e-02,-2.45341e-02,3.75603e-02,3.36533e-02,1.47645e-03,-1.03691e-02,1.88854e-02,-4.69537e-03,-3.16553e-03,-3.83990e-02,1.55334e-02,2.36700e-02,1.62628e-02,-3.40823e-03,2.12921e-02,-8.07586e-03,
-1.02815e-02,
-1.58668e-02,
-1.54823e-02,
-1.53360e-02,
-1.48281e-02,
